tree
version=v4
num_class=1
num_tree_per_iteration=1
label_index=0
max_feature_idx=69
objective=binary sigmoid:1
feature_names=wk1_Audience wk2_Audience wk1_Holiday_AudienceMean wk2_Holiday_AudienceMean wk1_AudiencePerShow wk2_AudiencePerShow e1 e2 e3 e4 e5 e6 e7 e8 e9 e10 e11 e12 e13 e14 e15 e16 e17 e18 e19 e20 e21 e22 e23 e24 e25 e26 e27 e28 e29 e30 e31 e32 e33 e34 e35 e36 e37 e38 e39 e40 e41 e42 e43 e44 e45 e46 e47 e48 e49 e50 e51 e52 e53 e54 e55 e56 e57 e58 e59 e60 e61 e62 e63 e64
feature_infos=[1:4752147] [4:6038438] [1:1598702] [0:1076727.5] [1:331.25] [0.91304347826086962:280.85714285714283] [-0.072265625:0.19628905999999999] [-0.265625:-0.0120849609] [-0.050537109400000002:0.19433593800000001] [-0.049560550000000002:0.236328125] [-0.13964844000000001:0.146484375] [-0.17773438:0.091308593800000004] [-0.15527344000000001:0.08984375] [-0.013244628899999999:0.25585938000000003] [-0.19921875:0.043212889999999997] [-0.18847656199999999:0.11083984] [-0.10498046900000001:0.11669922000000001] [-0.05859375:0.236328125] [-0.2421875:0.051025389999999997] [-0.21972656199999999:0.08203125] [-0.208984375:0.031738281200000003] [-0.18359375:0.112304688] [-0.20703125:0.086425781199999996] [-0.093261720000000006:0.17285155999999999] [-0.085449218800000004:0.13769531199999999] [-0.173828125:0.11474609400000001] [-0.13476562:0.16699218800000001] [-0.063964839999999995:0.20410156199999999] [-0.189453125:0.074707031199999996] [-0.073242189999999999:0.1875] [-0.099121093800000004:0.142578125] [-0.061767578099999998:0.21386719000000001] [-0.082519531199999996:0.15625] [-0.13671875:0.13671875] [-0.23925781199999999:-0.015502929699999999] [-0.126953125:0.150390625] [0.0043640136699999998:0.24511718800000001] [-0.103515625:0.173828125] [-0.0966796875:0.1171875] [-0.15527343800000001:0.042236328099999998] [-0.10302734:0.0986328125] [-0.094238281199999996:0.13964843800000001] [-0.080078125:0.119140625] [-0.099121089999999995:0.11962890599999999] [-0.166015625:0.02758789] [-0.0771484375:0.13378906199999999] [-0.053466796900000002:0.14257812] [-0.087402339999999995:0.119140625] [-0.12890625:0.072753906199999996] [-0.11279296900000001:0.10351562] [-0.13183594000000001:0.079589843800000004] [-0.076660160000000005:0.14453125] [-0.120117188:0.097167968800000004] [-0.096191406199999996:0.096679689999999999] [-0.11230469:0.092285160000000005] [-0.0751953125:0.11474609] [-0.11035156:0.081542968800000004] [-0.100585938:0.095703125] [-0.13867188:0.086425779999999994] [-0.12988281199999999:0.098632810000000001] [-0.035888671900000002:0.16015625] [-0.14550781199999999:0.072753906199999996] [-0.10791015599999999:0.098144531199999996] [-0.15722656199999999:0.0751953125] [-0.125:0.087402339999999995] [-0.150390625:0.073730470000000006] [-0.11328125:0.10205077999999999] [-0.07421875:0.111328125] [-0.12353516:0.07421875] [-0.10107422000000001:0.12255859]
tree_sizes=1683 1260 1596 1508 1594 2045 2031 1505 1680 2131 2142 1884 1791 1759 1504 1604 1846 1509 1703 1419 1339 1610 1492 1513 1246 971 1345 1588 1424 703 1691 1246 887 793

Tree=0
num_leaves=15
num_cat=0
split_feature=1 0 0 1 1 5 1 58 0 1 5 14 14 0
split_gain=3802.83 197.16 61.5377 14.1577 13.3242 8.88355 2.81329 2.39264 1.10001 1.01321 0.88815 0.779212 0.450862 0.763658
threshold=2901.5000000000005 7130.5000000000009 4495.0000000000009 3562.0000000000005 2413.5000000000005 17.905402716339669 1261.5000000000002 0.031250000300000004 2753.0000000000005 3380.0000000000005 10.779845320705974 -0.027954100799999996 -0.085205079399999981 2694.5000000000005
decision_type=2 2 2 2 2 2 2 2 2 2 2 2 2 2
left_child=1 4 3 8 -1 7 -3 -6 -2 -10 -8 12 -5 -14
right_child=2 6 -4 11 5 -7 10 -9 9 -11 -12 -13 13 -15
leaf_value=0.36189555711142446 -0.34201578273096217 -0.34201578273096217 -0.84496685547656614 -0.34201578273096217 0.09358585466915198 -0.34201578273096217 -0.71027936830057392 -0.34201578273096217 -0.14838432195019124 -0.34201578273096217 -0.34201578273096217 -0.34201578273096217 -0.34201578273096217 -0.66227167169413648
leaf_weight=422.03725199401379 4.8565826267004004 1.4569756686687494 592.74630090594292 5.3422441184520748 21.611808344721801 4.1280977278947821 13.112781018018721 2.4282928109168997 8.2561954408884031 1.9426342546939839 1.4569756686687458 2.6711225956678417 2.1854624748229972 12.627123579382895
leaf_count=1738 20 6 2441 22 89 17 54 10 34 8 6 11 9 52
internal_value=-0.342016 0.305223 -0.820876 -0.403832 0.343057 -0.00551005 -0.648058 0.0618431 -0.240406 -0.189503 -0.685745 -0.569604 -0.590009 -0.632537
internal_weight=1096.86 466.232 630.628 37.8814 450.205 28.1682 16.0267 24.0401 15.0554 10.1988 14.5698 22.826 20.1548 14.8126
internal_count=4517 1920 2597 156 1854 116 66 99 62 42 60 94 83 61
is_linear=0
shrinkage=1


Tree=1
num_leaves=12
num_cat=0
split_feature=1 0 1 1 5 0 0 0 1 52 0
split_gain=2030.48 133.57 15.1948 8.58664 8.70684 8.50003 7.43321 2.62921 2.40344 0.249353 0.0537825
threshold=3126.5000000000005 7130.5000000000009 3562.0000000000005 2253.0000000000005 21.212811507329373 3355.0000000000005 5950.0000000000009 6608.5000000000009 1261.5000000000002 -0.097656249399999992 3085.0000000000005
decision_type=2 2 2 2 2 2 2 2 2 2 2
left_child=1 3 7 -1 6 10 -5 -2 -3 -7 -4
right_child=2 8 5 4 -6 9 -8 -9 -10 -11 -12
leaf_value=0.49616596008651276 0 0 -0.023338683827826435 0.35008191147795908 0 0 0 -0.18965832586858133 -0.30924632786038336 -0.42332971305378447 0
leaf_weight=407.99496905505657 13.139257311820986 1.4569757431745554 7.5502650141715986 40.35494738817215 5.5565606504678717 1.26117444038391 4.0591206401586524 6.9364567995071402 17.381583213806152 505.46696321666241 3.2344068437814713
leaf_count=1686 57 6 32 164 23 6 17 33 79 2400 14
internal_value=-0.00601949 0.441639 -0.405779 0.475064 0.267135 -0.416577 0.311614 -0.0532391 -0.279317 -0.422752 0
internal_weight=1014.39 476.804 537.589 457.966 49.9706 517.513 44.4141 20.0757 18.8386 506.728 10.7847
internal_count=4517 1975 2542 1890 204 2452 181 90 85 2406 46
is_linear=0
shrinkage=0.299345


Tree=2
num_leaves=16
num_cat=0
split_feature=1 0 2 1 5 0 6 2 5 1 27 5 6 5 1
split_gain=1252.75 83.2334 14.3475 9.16793 5.32888 4.56588 3.76258 2.45063 2.423 2.30066 0.680329 0.422432 0.313556 0.221143 0.000707541
threshold=3126.5000000000005 7130.5000000000009 1280.2500000000002 2253.0000000000005 21.212811507329373 5950.0000000000009 0.089111329400000008 390.25000000000006 8.5426010034327984 1164.5000000000002 0.17089843900000004 10.779845320705974 -0.0078735351549999982 62.785027006672671 4166.0000000000009
decision_type=2 2 2 2 2 2 2 2 2 2 2 2 2 2 2
left_child=1 3 6 13 5 -5 7 -2 -9 -3 -4 -11 -10 -1 -8
right_child=2 9 10 4 -6 -7 14 8 12 11 -12 -13 -14 -15 -16
leaf_value=0.4139111253104808 0 0 -0.37593007632914754 0.26135228096423707 0 0 0.0037103989695030709 0 0 -0.27857552124289203 0 0 -0.22745162199442276 0 0
leaf_weight=351.27577477693558 1.2111741006374419 1.2141462564468408 413.06874871253967 38.594067186117172 5.5565606504678717 4.0591206401586524 3.3077982813119879 3.5174153298139599 1.5028766095638371 13.862046018242834 1.0669319629669178 1.7160590291023243 18.516357704997056 1.2545562982559193 1.8800159245729444
leaf_count=1680 5 5 2398 164 23 17 15 17 7 72 6 8 85 6 9
internal_value=-0.0080307 0.361965 -0.359114 0.390798 0.192689 0.229538 -0.0845146 -0.146664 -0.177206 -0.227035 -0.375252 -0.259749 -0.216261 0.413109 0
internal_weight=861.604 417.532 444.071 400.74 48.2097 42.6532 29.9356 24.7478 23.5366 16.7923 414.136 15.5781 20.0192 352.53 5.18781
internal_count=4517 1975 2542 1890 204 181 138 114 109 85 2404 80 92 1686 24
is_linear=0
shrinkage=0.299345


Tree=3
num_leaves=15
num_cat=0
split_feature=1 1 1 5 4 52 42 13 9 61 61 52 5 51
split_gain=812.523 34.314 16.0923 2.90921 3.90885 2.17587 1.55897 0.805673 0.709837 0.709234 0.737563 0.405399 0.34397 0.0643813
threshold=3126.5000000000005 2112.0000000000005 3562.0000000000005 5.0694980694980707 14.612777053455021 -0.073974609999999982 0.07788086000000001 0.081298829400000008 0.17138671900000005 -0.038574219399999991 -0.071289061249999994 0.058959960000000006 65.634131561559641 0.071289061250000021
decision_type=2 2 2 2 2 2 2 2 2 2 2 2 2 2
left_child=1 11 9 -3 5 -5 8 -7 -4 10 -2 12 -1 -11
right_child=2 3 6 4 -6 7 -8 -9 -10 13 -12 -13 -14 -15
leaf_value=0.36184329861791448 0 0 -0.34404271204333736 0 0 0 0 0.20635241920561639 0 0.026277625624902958 -0.12994172335040186 0 0 0
leaf_weight=283.74216009676456 2.190910130739212 12.974392309784887 335.66737043857574 1.2922132611274708 18.003069669008255 1.4391531497240091 3.095986306667327 29.506598055362701 0.92025011777877708 7.1561018675565702 6.3765978068113345 1.020937681198119 1.0454635769128788 1.8034189939498899
leaf_count=1656 11 67 2426 6 85 7 20 143 6 36 34 6 5 9
internal_value=-0.00786482 0.314326 -0.326594 0.0819789 0.116062 0.176484 -0.341138 0.196066 -0.3433 0 -0.0802205 0.360214 0.361032 0.00257977
internal_weight=706.235 349.024 357.211 63.2154 50.241 32.238 339.684 30.9458 336.588 17.527 8.56751 285.809 284.788 8.95952
internal_count=4517 1975 2542 308 241 156 2452 150 2432 90 45 1667 1661 45
is_linear=0
shrinkage=0.299345


Tree=4
num_leaves=16
num_cat=0
split_feature=1 2 2 3 3 9 51 62 1 14 14 30 2 1 3
split_gain=539.726 32.5083 26.9427 9.73727 4.77155 2.10598 2.60988 1.63395 1.00912 0.845699 0.360381 0.284976 0.25034 0.761901 0.16572
threshold=2901.5000000000005 1411.2500000000002 1488.6666666666667 425.25000000000006 723.25000000000011 0.060058591900000007 0.065429688750000006 0.034057617200000008 2727.0000000000005 0.019165041400000003 -0.027954100799999996 0.072753908100000014 1887.2500000000002 1620.0000000000002 87.250000000000014
decision_type=2 2 2 2 2 2 2 2 2 2 2 2 2 2 2
left_child=2 4 3 8 5 10 7 -7 -1 -3 -2 -6 -4 -14 -15
right_child=1 9 12 -5 11 6 -8 -9 -10 -11 -12 -13 13 14 -16
leaf_value=0.32950771338948143 -0.068786142849716805 -0.33037107549857508 0 0 -0.20130100453054969 0.18747967282593017 0 0 0 0 0 0 0 0 -0.1184384226818382
leaf_weight=244.05740486830473 5.5275488197803497 256.33051052689552 6.1347732543945339 11.883462786674498 9.3122379109263385 15.549951888620859 4.6984222009778014 1.6649169176816929 4.888260304927825 0.77629345655441184 1.3453791812062288 0.85412284731865007 4.7846895456314078 2.4028368294239026 6.2272366285324097
leaf_count=1731 31 2379 35 58 60 77 24 8 22 6 6 6 28 12 34
internal_value=-0.00708005 -0.290709 0.287376 0.312977 0 0.0277546 0.0955444 0.155173 0.325719 -0.32943 0 -0.187818 0 -0.0390479 -0.0955857
internal_weight=576.438 296.059 280.379 260.829 38.9526 28.7862 21.9133 17.2149 248.946 257.107 6.87293 10.1664 19.5495 13.4148 8.63007
internal_count=4517 2597 1920 1811 212 146 109 85 1753 2385 37 66 109 74 46
is_linear=0
shrinkage=0.299345


Tree=5
num_leaves=21
num_cat=0
split_feature=0 3 3 0 13 0 3 16 40 66 18 18 8 5 3 12 59 66 67 5
split_gain=387.352 63.1837 4.35691 3.81513 2.19424 3.01255 1.33982 1.16873 1.05045 1.0276 0.931701 0.710202 0.849339 0.664482 0.545244 0.512423 0.501008 0.163622 0.132854 0.112342
threshold=6347.5000000000009 333.08333333333343 693.83333333333337 7130.5000000000009 0.12182617050000001 3535.5000000000005 3.7500000000000004 0.07788086000000001 0.031860350600000011 0.022949219550000004 -0.11914062249999999 0.029663088100000002 0.13330078000000004 15.953870656370658 173.75000000000003 -0.053222658099999993 0.025756837950000003 0.019836425300000005 0.092529298750000016 49.945477605805749
decision_type=2 2 2 2 2 2 2 2 2 2 2 2 2 2 2 2 2 2 2 2
left_child=1 7 4 14 5 9 -5 11 10 -3 -4 12 19 15 -2 -6 -15 -12 -8 -1
right_child=3 2 8 6 13 -7 18 -9 -10 -11 17 -13 -14 16 -16 -17 -18 -19 -20 -21
leaf_value=0.32936370796693498 0 0.24121574416163916 0 0 0 0 -0.32196614084632286 0 0 0 -0.21342118286757991 0 0 -0.10809238188049279 -0.078019037590336252 0.052758304668592611 0 0 0 0
leaf_weight=186.20663315057755 3.832103103399275 8.5651523023843747 3.1943281590938577 0.36649927496909995 6.7793130651116398 4.7602310925722113 199.17583826184273 2.2032025158405295 0.91269429773092348 1.1686238721013058 11.193738691508766 0.98006913065910239 3.4563647508621207 7.6409888565540296 6.7291738092899323 15.198972433805467 1.8384488075971601 0.8075626343488701 1.2531175613403309 1.4373954907059658
leaf_count=1643 25 47 21 2 37 30 2320 18 7 7 92 8 29 39 65 88 8 7 13 11
internal_value=-0.00713053 0.236625 -0.00483107 -0.309025 0.0179419 0.11582 -0.319654 0.320467 -0.147109 0.208983 -0.168955 0.323126 0.324458 0 0 0 -0.0743304 -0.204157 -0.320873 0.328027
internal_weight=467.7 256.344 62.0601 211.357 45.9517 14.494 200.795 194.284 16.1083 9.73378 15.1956 192.08 191.1 31.4577 10.5613 21.9783 9.47944 12.0013 200.429 187.644
internal_count=4517 2092 383 2425 256 84 2335 1709 127 54 120 1691 1683 172 90 125 47 99 2333 1654
is_linear=0
shrinkage=0.299345


Tree=6
num_leaves=21
num_cat=0
split_feature=0 3 1 1 13 4 46 18 46 16 58 4 57 0 18 2 66 40 58 0
split_gain=262.521 47.708 10.4488 2.89877 1.5041 1.43466 1.51439 1.32428 1.29848 1.0512 0.924679 0.875787 0.838659 0.797323 0.739272 0.667341 0.679963 0.503481 0.107159 0.101198
threshold=5950.0000000000009 333.08333333333343 2159.0000000000005 4166.0000000000009 0.118408201 16.21519377228903 0.033447267800000006 0.017333982050000005 0.114501951 0.10229492000000001 0.053710939700000009 81.788069073783376 -0.071777344999999979 6347.5000000000009 -0.13330077999999998 1220.0000000000002 0.022949219550000004 0.024047850800000003 0.026062011800000003 8263.5000000000018
decision_type=2 2 2 2 2 2 2 2 2 2 2 2 2 2 2 2 2 2 2 2
left_child=1 7 19 4 15 6 -6 8 9 10 -1 14 -4 -14 -5 16 -3 -7 -16 -2
right_child=2 3 12 11 5 17 -8 -9 -10 -11 -12 -13 13 -15 18 -17 -18 -19 -20 -21
leaf_value=0.30947970576694678 0.036537748918381303 0.16840956892011597 0 0 0 -0.11348352717818158 0.10745720096885329 0 0 0 0 0 0 -0.3094042315662851 -0.18704482781412701 0 0 0 0 0
leaf_weight=147.56195489317179 5.4950687885284406 8.2050855532288534 0.97688741981983085 1.3202296271920193 9.0198630616068858 10.776360295712946 12.028845369815825 1.9688671827316273 0.60784789919853111 0.61122213304042716 0.63362516462802787 0.72981731593608934 3.8326647579669944 155.94939084351063 10.137800551950926 1.9310677498579014 1.6222568228840817 1.5217023044824589 0.78114584088325578 3.3670684695243835
leaf_count=1658 38 47 13 9 50 53 70 18 7 4 4 4 28 2363 96 13 10 8 5 19
internal_value=-0.00669744 0.213096 -0.285898 0 0.0173714 0 0.0285221 0.301134 0.30439 0.306274 0.307924 -0.131246 -0.303291 -0.304975 -0.154763 0.106751 0.136927 -0.0901035 -0.178781 0
internal_weight=379.079 209.458 169.621 58.0742 45.1052 33.3468 21.0487 151.384 149.415 148.807 148.196 12.969 160.759 159.782 12.2392 11.7584 9.82734 12.2981 10.9189 8.86214
internal_count=4517 2056 2461 365 251 181 120 1691 1673 1666 1662 114 2404 2391 110 70 57 61 101 57
is_linear=0
shrinkage=0.299345


Tree=7
num_leaves=15
num_cat=0
split_feature=0 1 65 1 8 28 50 59 12 1 5 0 33 21
split_gain=178.628 45.6001 4.88872 5.00123 3.40116 2.59904 2.74257 2.15586 2.28849 2.09526 1.31054 1.06232 1.04303 0.099206
threshold=7130.5000000000009 2253.0000000000005 -0.032714841899999993 4078.0000000000005 0.058959960500000012 -0.1149902345 -0.096435548749999989 0.028564451550000005 0.016723631500000006 1261.5000000000002 49.945477605805749 3159.0000000000005 0.084716796850000012 0.083007811250000021
decision_type=2 2 2 2 2 2 2 2 2 2 2 2 2 2
left_child=1 10 3 5 -4 -3 -7 8 -6 -2 12 -5 13 -1
right_child=9 2 4 11 7 6 -8 -9 -10 -11 -12 -13 -14 -15
leaf_value=0.2949377580259942 0 0 0 0 -0.24270396387136264 0 0.17363945647113435 0 0 -0.29954361724166706 0 -0.12752968858843614 0 0
leaf_weight=111.34161971136928 1.4769893586635578 3.5710730403661683 6.1868527233600643 3.332889683544634 16.572867918759592 1.0383340790867794 30.754696227610118 3.7624555714428416 0.77840688824653526 118.10780301690102 1.7444420233368862 7.5574968606233597 0.7692449688911428 1.6107613779604424
leaf_count=1637 6 20 42 20 114 5 173 25 4 2329 14 93 11 24
internal_value=-0.00623743 0.169879 0 0.043122 -0.110572 0.115343 0.147573 -0.17088 -0.213191 -0.295088 0.286415 -0.0632926 0.290342 0.292718
internal_weight=308.606 189.021 73.5551 46.2545 27.3006 35.3641 31.793 21.1137 17.3513 119.585 115.466 10.8904 113.722 112.952
internal_count=4517 2182 496 311 185 198 178 143 118 2335 1686 113 1672 1661
is_linear=0
shrinkage=0.299345


Tree=8
num_leaves=17
num_cat=0
split_feature=0 3 0 50 24 5 46 6 3 6 56 55 3 13 32 8
split_gain=121.256 38.6351 3.28407 3.2098 2.2311 2.03216 1.76289 1.44731 1.10971 1.10506 1.04934 2.04199 2.52969 1.79006 1.68301 0.940058
threshold=7611.5000000000009 333.08333333333343 4086.5000000000005 -0.096435548749999989 0.091796877500000013 4.692302657823876 0.11279296950000002 -0.039550781249999993 10.583333333333334 0.12036132950000002 0.00083541935050000012 0.031860350600000011 723.25000000000011 0.11621093900000001 0.090820311250000021 0.12158203050000001
decision_type=2 2 2 2 2 2 2 2 2 2 2 2 2 2 2 2
left_child=1 3 10 -1 6 -4 7 -5 -2 15 11 12 -3 -12 -15 -7
right_child=8 2 5 4 -6 9 -8 -9 -10 -11 13 -13 -14 14 -16 -17
leaf_value=0 0 0.16098380081055433 0 0 0 -0.21191032783314401 0 0.27483428450873409 -0.29212382011200294 0 0 0 0 -0.17661483559181246 0 0
leaf_weight=3.0083950310945502 0.50449120625853439 17.141597896814353 1.3269073851406599 1.1556608974933613 2.4473491683602324 14.744710784405475 0.73366233706474204 97.597986564040184 88.693319860845804 0.76614566519856353 2.991997141391038 6.6634243950247756 2.161797583103179 9.5073790997266752 2.5564832389354697 1.3704141788184632
leaf_count=47 5 99 11 15 34 174 9 1655 2294 7 18 44 18 56 14 17
internal_value=-0.00565115 0.141081 -0.031683 0.251028 0.260072 -0.134914 0.266953 0.27086 -0.289416 -0.171893 0 0.050017 0.110421 -0.0397363 -0.118057 -0.191139
internal_weight=253.372 164.174 59.2309 104.943 101.935 18.2082 99.4873 98.7536 89.1978 16.8813 41.0227 25.9668 19.3034 15.0559 12.0639 16.1151
internal_count=4517 2218 458 1760 1713 209 1679 1670 2299 198 249 161 117 88 70 191
is_linear=0
shrinkage=0.299345


Tree=9
num_leaves=22
num_cat=0
split_feature=1 1 1 33 10 7 35 59 46 59 7 5 19 35 26 61 42 52 52 15 62
split_gain=84.9301 21.3952 3.17635 2.41714 2.19001 2.67008 3.23025 1.78911 1.16074 1.06221 1.03247 1.07809 0.881887 0.614536 0.38375 0.577302 0.466181 0.312243 0.261877 0.001589 0.140556
threshold=3562.0000000000005 2011.0000000000002 4628.0000000000009 0.072021481900000017 0.031982420950000007 -0.099853517999999988 0.015991210450000005 0.028564451550000005 0.114501951 0.059692381250000003 -0.057617188749999992 4.0107638488448094 0.052490232500000004 0.07641601810000001 0.035766600600000011 0.0049591100000000001 -0.043945312249999993 0.058959960000000006 0.045776367200000008 -0.075927734399999988 0.030151368600000002
decision_type=2 2 2 2 2 2 2 2 2 2 2 2 2 2 2 2 2 2 2 2 2
left_child=1 3 14 8 5 6 7 -3 13 10 11 -6 -4 17 -2 16 -16 -1 -18 -7 -21
right_child=2 4 12 -5 9 19 -8 -9 -10 -11 -12 -13 -14 -15 15 -17 18 -19 -20 20 -22
leaf_value=0.26524331857626116 0 -0.23354733412071965 -0.28194000012383369 0 0 0 0 0 0 0 0 0.12255203645106966 0 0 0 0 -0.12652853599961147 0 0 0.050296916273400237 0
leaf_weight=67.326822431758046 4.6637775879353276 12.984966121613985 67.57511405646801 1.9730705991387356 1.9994613863527835 1.9925358369946478 6.6498960778117171 2.2992056906223288 0.49823806062340636 1.1354543231427658 0.88674248754978435 24.70620695874095 0.57679681479930778 1.0662195459008206 0.22955255210399528 1.203370539471506 8.1567309293895924 0.33859013393521209 0.56223071552813131 3.7374496757984152 1.0806950144469736
leaf_count=1556 47 84 2259 37 23 15 51 14 7 7 5 204 13 26 1 11 114 5 7 24 7
internal_value=-0.00607879 0.138888 -0.246281 0.247033 0 -0.0547325 -0.119049 -0.193165 0.256522 0.0594855 0.0835 0.102454 -0.278733 0.260301 0 -0.0548031 -0.0916787 0.263824 -0.112996 0 0.00482519
internal_weight=211.643 128.676 82.9676 71.2029 57.4726 28.7447 21.9341 15.2842 69.2299 28.7279 27.5924 26.7057 68.1519 68.7316 14.8157 10.1519 8.94851 67.6654 8.71896 6.81068 4.81814
internal_count=4517 2065 2452 1631 434 195 149 98 1594 239 232 227 2272 1587 180 133 122 1561 121 46 31
is_linear=0
shrinkage=0.299345


Tree=10
num_leaves=22
num_cat=0
split_feature=1 1 2 2 65 56 2 12 60 28 57 21 66 31 54 54 57 31 59 59 28
split_gain=56.1717 19.3714 3.52419 1.73238 1.37081 2.98075 2.44032 1.87649 1.87483 1.75937 1.35475 0.889386 0.832198 0.395637 0.370963 0.30883 0.080934 0.197057 0.0341958 1.49302 0.0146052
threshold=4166.0000000000009 1620.0000000000002 778.25000000000011 3581.5000000000005 -0.038085938749999992 0.0035705566400000004 1161.5000000000002 -0.0085144049999999975 0.029052732200000004 -0.115966799 0.051513670950000007 0.083007811250000021 0.074218750000000014 0.0123901367 0.055419920950000007 -0.069091798749999989 -0.015167234999999998 0.15478515900000003 0.020080565600000003 0.0086059585150000013 -0.061157228449999997
decision_type=2 2 2 2 2 2 2 2 2 2 2 2 2 2 2 2 2 2 2 2 2
left_child=1 3 -2 11 6 18 8 10 -3 -10 -7 12 14 -4 -1 -15 -8 -18 19 -6 -20
right_child=2 4 13 -5 5 7 16 -9 9 -11 -12 -13 -14 15 -16 -17 17 -19 20 -21 -22
leaf_value=0.26331558570224983 0 0 0 0 0 -0.2553898117894477 0 0 0 0.16405561338421201 0 0 0 0 0 -0.27612745700414304 -0.043127596628742194 0 0.028526921199605274 -0.1515057909815074 0
leaf_weight=47.191602744162083 2.3071080744266501 1.9486877061426664 1.1501595303416241 0.65372436121106048 12.807858500629669 8.1115770079195482 2.5284153781831273 2.1185762323439112 1.7590805049985672 21.37085928581655 1.1309572085738171 0.75693769380450149 0.36162519454955955 1.3392694238573302 0.75785984098911185 52.901164276525378 12.095080126076931 0.95479384809732515 4.0761060565710068 4.5309472102671853 0.56200252659618755
leaf_count=1428 15 14 42 5 126 71 24 20 18 186 9 17 4 54 15 2233 139 11 40 38 8
internal_value=-0.00441875 0.101323 -0.252239 0.243267 0 -0.0405868 0.0395965 -0.160023 0.103848 0.136096 -0.21612 0.251056 0.25612 -0.267926 0.259987 -0.271863 0 -0.0224829 0 0 0.022721
internal_weight=181.414 123.717 57.6977 49.7217 73.9949 33.338 40.6569 11.3611 25.0786 23.1299 9.24253 49.068 48.3111 55.3906 47.9495 54.2404 15.5783 13.0499 21.9769 17.3388 4.63811
internal_count=4517 2173 2344 1469 704 312 392 100 218 204 80 1464 1447 2329 1443 2287 174 150 212 164 48
is_linear=0
shrinkage=0.299345


Tree=11
num_leaves=19
num_cat=0
split_feature=0 1 38 24 51 63 59 1 3 16 55 1 55 51 29 1 61 30
split_gain=46.5489 16.3578 2.27631 2.18363 2.68819 1.96741 1.6226 1.35817 1.11116 1.02493 0.970062 0.943317 0.873116 0.64692 0.422048 0.401044 0.375352 0.222303
threshold=7130.5000000000009 2253.0000000000005 0.035888670950000007 0.027282715000000003 0.003936767580000001 -0.0082397480449999984 -0.033081052199999995 1008.5000000000001 3.7500000000000004 0.053710937750000007 -0.043334959999999992 4628.0000000000009 0.058105469400000005 0.048583982200000007 0.015747070000000005 2778.5000000000005 -0.047729490949999995 -0.046264649399999989
decision_type=2 2 2 2 2 2 2 2 2 2 2 2 2 2 2 2 2 2
left_child=1 5 3 13 -5 9 -6 -2 -9 10 -1 12 14 16 -4 -15 -3 -10
right_child=7 2 11 4 6 -7 -8 8 17 -11 -12 -13 -14 15 -16 -17 -18 -19
leaf_value=0 0 0 0 0 0 0 -0.19430476046513948 0 0 0 0.26603428654478173 0 0 0 0.17138019941309382 -0.075418934892192702 0.078066884568385869 -0.27264333798488755
leaf_weight=0.64705072343349357 1.1847410146147002 4.7717087101191309 1.4998033344745607 4.3539532087743309 2.0957200378179612 7.1355110201984635 16.079599078744646 0.32742536067962547 1.2618017941713322 2.2469557411968699 38.727287799119949 1.6707936562597741 0.91782501712441522 1.6208503022789935 9.9532314874231798 6.7458963431417942 12.122776102274658 44.457008352503181
leaf_count=16 5 40 10 33 19 234 123 2 60 71 1365 31 5 14 69 65 87 2268
internal_value=-0.00211348 0.0950993 0 -0.038856 -0.106408 0.222485 -0.16194 -0.255177 -0.263278 0.24867 0.259829 0.0920112 0.12524 0 0.151493 -0.0318673 0.0514492 -0.268171
internal_weight=157.82 110.589 61.8322 47.7905 22.5293 48.7568 18.1753 47.231 46.0462 41.6213 39.3743 14.0417 12.3709 25.2612 11.453 8.36675 16.8945 45.7188
internal_count=4517 2182 496 381 175 1686 142 2335 2330 1452 1381 115 84 206 79 79 127 2328
is_linear=0
shrinkage=0.299345


Tree=12
num_leaves=18
num_cat=0
split_feature=0 3 50 64 10 3 45 49 43 58 0 45 33 17 65 12 12
split_gain=32.6149 13.3632 2.66169 1.93833 1.27777 1.58124 1.44415 1.66724 1.38962 0.788016 0.707577 0.636319 0.594789 0.026426 0.292636 0.00319611 0.0809036
threshold=8065.5000000000009 206.62500000000003 -0.098144530599999988 0.041992188750000006 0.036865232200000007 454.00000000000006 0.036376951550000002 0.019409179850000003 0.078857420600000019 0.038818360000000003 5950.0000000000009 -0.017578122499999998 0.072021481900000017 0.086914062250000021 -0.088378908099999987 -0.014892578049999999 -0.073242188749999979
decision_type=2 2 2 2 2 2 2 2 2 2 2 2 2 2 2 2 2
left_child=1 2 -1 9 6 10 7 8 -3 12 11 -6 -4 -7 -15 16 -8
right_child=-2 4 3 -5 5 13 15 -9 -10 -11 -12 -13 -14 14 -16 -17 -18
leaf_value=0 -0.25854857630499523 -0.16369133524621696 0.24718608784952301 0 0 0 0 0 0 0 0 0.16005351083760178 0 0 -0.050863548166922179 0 0.026787830602910449
leaf_weight=1.2234734930098046 33.418632969260216 16.701781731098897 36.924425476230681 0.61638921685516734 0.26139286160468955 4.4861851111054412 1.1850654482841481 4.4081937298178664 0.59716850519180198 1.1244440674781788 1.4956017583608616 10.32161768525839 1.0025332551449526 1.3295544236898411 9.753617322072385 4.3914462514221659 9.2043243851512653
leaf_count=36 2262 189 1401 16 2 50 11 63 4 24 18 154 32 9 95 55 96
internal_value=0 0.0752362 0.206515 0.223035 0 0.0350374 -0.0457142 -0.0951722 -0.138703 0.234113 0.115106 0.142317 0.241206 0 -0.0138298 0 0.00495033
internal_weight=138.446 105.027 40.8913 39.6678 64.1359 27.648 36.488 21.7071 17.299 39.0514 12.0786 10.583 37.927 15.5694 11.0832 14.7808 10.3894
internal_count=4517 2255 1509 1473 746 328 418 256 193 1457 174 156 1433 154 104 162 107
is_linear=0
shrinkage=0.299345


Tree=13
num_leaves=18
num_cat=0
split_feature=0 4 3 0 3 12 32 6 49 57 42 69 49 61 45 12 54
split_gain=23.6802 8.04224 2.90132 2.75678 2.24924 2.2458 1.3804 2.28437 1.71468 1.33794 1.22616 0.618124 0.51386 0.219312 0.271383 0.217899 0.066897
threshold=5950.0000000000009 14.612777053455021 145.00000000000003 4364.0000000000009 693.83333333333337 -0.096923829399999981 0.051635740950000009 0.065185548750000016 0.023559570150000004 -0.028869626899999997 -0.026428223749999997 0.092529295000000011 0.070556640600000012 0.0090026839850000009 0.021789552950000003 -0.077148438749999979 0.038940430000000005
decision_type=2 2 2 2 2 2 2 2 2 2 2 2 2 2 2 2 2
left_child=1 3 -2 4 5 -1 7 8 10 -7 -3 12 16 14 -8 -16 -4
right_child=2 6 11 -5 -6 9 13 -9 -10 -11 -12 -13 -14 -15 15 -17 -18
leaf_value=0 0 0 -0.24898173982279415 0 0 0 0 0 0 0.2309545133268818 -0.24413825004320791 0 0 0 0 0.087655967372620519 0
leaf_weight=1.8665484357625235 8.5625226274132711 0.56118465960026043 29.286520950496207 11.21877399086952 1.6574204340577114 3.6638186872005454 2.3109569326043111 5.8736570440232745 2.303353250026702 37.753628524020314 8.6456538662314433 0.25062070786952872 0.23160076141357322 1.0774014927446831 0.54373340494930644 6.9663071427494296 1.05725598335266
leaf_count=47 142 9 2258 147 17 149 43 97 39 1283 120 4 5 14 6 85 52
internal_value=0 0.08319 -0.193828 0.151184 0.183697 0.198796 -0.00497743 -0.0816117 -0.160304 0.214378 -0.214381 -0.235959 -0.240525 0 0.0420417 0.0706564 -0.244399
internal_weight=123.831 84.4424 39.3885 56.1602 44.9414 43.284 28.2822 17.3838 11.5102 41.4174 9.20684 30.826 30.5754 10.8984 9.821 7.51004 30.3438
internal_count=4517 2056 2461 1643 1496 1479 413 265 168 1432 129 2319 2315 148 134 91 2310
is_linear=0
shrinkage=0.299345


Tree=14
num_leaves=15
num_cat=0
split_feature=0 1 14 38 14 13 18 12 25 66 65 2 1 13
split_gain=15.6253 9.17399 1.52966 2.12546 2.5169 3.0079 2.01045 1.16485 1.48438 0.563847 0.501719 0.202088 0.0931957 0.270334
threshold=8065.5000000000009 1711.5000000000002 -0.086425781099999974 0.035888670950000007 -0.027954100799999996 0.118408201 -0.072265622499999987 1.0000000180025095e-35 -0.075683591899999986 0.074218750000000014 -0.0021057128899999995 3581.5000000000005 4482.0000000000009 0.16992187750000001
decision_type=2 2 2 2 2 2 2 2 2 2 2 2 2 2
left_child=1 9 6 4 5 -4 7 8 -3 10 11 -1 13 -5
right_child=-2 2 3 12 -6 -7 -8 -9 -10 -11 -12 -13 -14 -15
leaf_value=0.22809862114664659 -0.22917598526876429 0 0 0.064043484341524695 0 -0.17212078885275855 0 0 0.19939646984506332 0 0 0 0 0
leaf_weight=20.763875010423373 21.321051925420761 2.1518856659531584 6.685871683061122 6.6446108641102892 5.2782757217064527 24.307810941711068 6.350709853693842 2.0158537551760665 10.814473251812162 0.3130590170621862 2.518730358220636 0.089476279914378121 1.2627020310610522 1.8695982731878755
leaf_count=1326 2262 25 83 72 59 277 76 26 97 4 162 1 32 15
internal_value=0 0.0479293 0 -0.0392801 -0.0837491 -0.123064 0.0531864 0.122468 0.156319 0.203466 0.209694 0.225835 0 0.0291741
internal_weight=112.388 91.0669 67.3818 46.0489 36.272 30.9937 21.3329 14.9822 12.9664 23.6851 23.3721 20.8534 9.77691 8.51421
internal_count=4517 2255 762 538 419 360 224 148 122 1493 1489 1327 119 87
is_linear=0
shrinkage=0.299345


Tree=15
num_leaves=16
num_cat=0
split_feature=1 1 2 2 65 9 14 14 23 14 9 5 14 56 11
split_gain=9.76332 4.10693 1.07394 0.791825 0.460018 1.32021 1.18637 0.822483 0.638021 0.467342 0.452539 0.373342 0.339899 0.0241084 0.353191
threshold=4628.0000000000009 1711.5000000000002 905.75000000000011 778.25000000000011 -0.038085938749999992 0.090576170600000019 -0.021911623099999996 -0.093017579399999981 0.034545899400000003 -0.14404296999999996 0.029785158100000004 21.771134357633219 -0.15136718899999999 0.0035705566400000004 -0.083496091899999986
decision_type=2 2 2 2 2 2 2 2 2 2 2 2 2 2 2
left_child=1 2 11 -2 8 6 7 -6 -3 -10 -11 12 -1 14 -7
right_child=3 4 -4 -5 5 13 -8 -9 9 10 -12 -13 -14 -15 -16
leaf_value=0 0 0 0 -0.20745036964997066 0 0 0 -0.15236543152328016 0 0 0.074739307433112287 0 0.19838463225576378 0 0.066098501007452709
leaf_weight=0.51986577548087254 1.0510315503925109 4.371324087958782 3.5007049124687901 17.295517334714532 6.1051448057405713 0.49265379924327124 1.612982206512245 12.302756304852663 0.80633408250287431 1.3531470871530498 27.953758640680462 0.97790606599301 15.823293838184329 3.1498855822719634 6.4408564209006709
leaf_count=24 9 55 101 2263 79 9 20 112 10 21 329 56 1324 31 74
internal_value=0 0.0409861 0.15239 -0.192668 0 -0.0235558 -0.0797907 -0.110827 0.0257886 0.0507713 0.063356 0.180991 0.190971 0 0.0162006
internal_weight=103.757 85.4106 20.8218 18.3465 64.5888 30.1043 20.0209 18.4079 34.4846 30.1132 29.3069 17.3211 16.3432 10.0834 6.93351
internal_count=4517 2245 1505 2272 740 325 211 191 415 360 350 1404 1348 114 83
is_linear=0
shrinkage=0.299345


Tree=16
num_leaves=19
num_cat=0
split_feature=0 3 10 23 39 1 16 3 16 9 60 7 14 2 6 65 7 2
split_gain=8.53182 4.15498 2.93209 1.49197 1.49176 0.864988 0.752749 0.589712 0.380092 0.247918 0.227122 1.11082 1.52381 1.02081 0.260738 0.713219 0.816053 0.0365582
threshold=6608.5000000000009 333.08333333333343 -0.017822267649999998 0.0029373181450000007 -0.095703122499999987 3469.0000000000005 0.062744140000000018 3.7500000000000004 0.070556640000000018 0.13574218900000004 0.068115234400000016 -0.099853517999999988 -0.027954100799999996 406.75000000000006 0.030639649200000004 -0.00074767999999999981 -0.079101561249999994 647.25000000000011
decision_type=2 2 2 2 2 2 2 2 2 2 2 2 2 2 2 2 2 2
left_child=1 2 -1 -4 -2 6 -5 -6 9 17 11 12 13 -3 -12 16 -16 -9
right_child=4 10 3 5 7 -7 -8 8 -10 -11 14 -13 -14 -15 15 -17 -18 -19
leaf_value=0 0 0 0 0.21584591571007608 0 0 0 0 0 0 0 0 0 -0.14337073498444936 0.11301851577108422 0 0 -0.21057890228684928
leaf_weight=5.4799501076340702 2.1034007072448757 1.1248261081054902 1.5468905018642569 21.620348889846362 0.37002047523856418 1.9550670906901348 1.1475383481010784 0.12105402909220231 0.40283727645873924 0.65501456521451373 5.3044264717027572 5.5464497981593004 2.1879508765414348 15.628014870919285 11.259937528520821 1.3525501200929255 1.531043557450176 18.018941164016724
leaf_count=239 152 13 80 1354 3 11 36 3 35 59 52 52 21 152 95 10 13 2137
internal_value=0 0.0447297 0.126202 0.169185 -0.163031 0.188317 0.203875 -0.188852 -0.197199 -0.203377 0 -0.0280944 -0.0769669 -0.119192 0 0.0388988 0.0787064 -0.20952
internal_weight=97.3563 75.685 31.7498 26.2698 21.6713 24.723 22.7679 19.5679 19.1978 18.795 43.9352 24.4872 18.9408 16.7528 19.448 14.1435 12.791 18.14
internal_count=4517 2128 1720 1481 2389 1401 1390 2237 2234 2199 408 238 186 165 170 118 108 2140
is_linear=0
shrinkage=0.299345


Tree=17
num_leaves=15
num_cat=0
split_feature=1 2 1 50 33 2 47 56 50 56 6 50 68 51
split_gain=4.4192 2.03315 1.6685 1.99608 1.1138 0.611636 0.664097 0.443335 0.973409 0.765356 0.391273 0.274528 0.351338 0.191563
threshold=3968.0000000000005 1117.2500000000002 2112.0000000000005 -0.086669920599999992 0.072021481900000017 3302.5000000000005 0.072753908100000014 -0.0050811767599999993 -0.044067381249999989 0.03381347845000001 0.025817873100000003 0.021972656250000003 -0.053588868749999997 -0.012176515599999998
decision_type=2 2 2 2 2 2 2 2 2 2 2 2 2 2
left_child=2 -2 3 -1 5 6 -5 10 9 13 -4 12 -12 -9
right_child=1 -3 7 4 -6 -7 -8 8 -10 -11 11 -13 -14 -15
leaf_value=0 0 -0.18427607439190447 0 0.18063991448638012 0 0 0 0 0 0 0 0 0.075872964168347781 -0.12749535246749943
leaf_weight=2.0886947233229902 5.3139316490851369 13.588513697031884 8.2536921496503073 17.555207262281339 0.94309240486472745 0.56293815094977517 1.0245345160365094 0.62355608865618606 8.8917107526212913 1.8258893731981505 0.5772974006831707 0.91118423268198867 17.71325101191178 10.661980649456384
leaf_count=109 55 2325 80 1444 36 9 69 6 84 19 11 5 172 93
internal_value=0 -0.126513 0.0315695 0.0972954 0.136951 0.156537 0.167198 0 -0.0303269 -0.0868378 0.0252254 0.0510184 0.0630858 -0.118682
internal_weight=90.5355 18.9024 71.633 22.1745 20.0858 19.1427 18.5797 49.4586 22.0031 13.1114 27.4554 19.2017 18.2905 11.2855
internal_count=4517 2380 2137 1667 1558 1522 1513 470 202 118 268 188 183 99
is_linear=0
shrinkage=0.299345


Tree=18
num_leaves=17
num_cat=0
split_feature=0 5 10 1 25 12 42 19 38 39 22 22 38 32 19 42
split_gain=4.37658 2.73965 1.51142 0.906719 0.600553 0.561705 0.557139 0.189703 0.552339 0.639108 0.182994 1.02234 0.593461 0.113475 0.0869261 0.0567322
threshold=4086.5000000000005 15.953870656370658 -0.017089841899999996 3968.0000000000005 0.015380857100000001 -0.090332030599999988 -0.035766600599999997 -0.050659179999999991 0.035888670950000007 -0.084960938749999979 -0.026611329049999997 0.0096740699200000019 0.038452149400000003 -0.0068511962899999992 -0.11303710999999998 0.011810305000000002
decision_type=2 2 2 2 2 2 2 2 2 2 2 2 2 2 2 2
left_child=1 2 -1 7 5 -4 -7 8 9 -2 -3 12 13 -12 -11 -9
right_child=3 10 4 -5 -6 6 -8 15 -10 14 11 -13 -14 -15 -16 -17
leaf_value=0 0 0 0 -0.16267381864206604 0 0 0.15998577860816507 0.025435072560730989 0 0 0 0 0 -0.16026933313045053 -0.12275062186368703 0
leaf_weight=5.6025185314938417 0.81020063161849876 6.1971805291250339 1.2956057805568004 11.416030460968612 0.39990695472806592 1.3679898423142791 24.956627697683871 6.560453715734182 3.2887533735483876 0.62671022955328037 0.33270323928445478 2.8995087868534029 1.1828404595144091 5.3735549701377741 7.433149977587167 5.8151176506653428
leaf_count=231 13 97 55 2326 33 49 1241 91 50 10 7 37 12 59 114 92
internal_value=0 0.0518749 0.104657 -0.0827708 0.132912 0.140609 0.150068 0 -0.0355424 -0.0808683 0 -0.0384593 -0.114862 -0.151704 -0.115005 0
internal_weight=85.5589 49.6084 33.6226 35.9504 28.0201 27.6202 26.3246 24.5344 12.1588 8.87006 15.9858 9.78861 6.8891 5.70626 8.05986 12.3756
internal_count=4517 1821 1609 2696 1378 1345 1290 370 187 137 212 115 78 66 124 183
is_linear=0
shrinkage=0.299345


Tree=19
num_leaves=14
num_cat=0
split_feature=0 10 5 59 39 23 39 1 19 19 6 31 4
split_gain=2.87335 1.32413 1.06852 0.997947 0.903946 0.82896 0.743574 0.226452 1.00155 1.66603 2.02741 0.199467 0.127919
threshold=7130.5000000000009 0.036865232200000007 13.902729431085882 0.062744140600000012 0.0017967238550000003 0.13427734100000002 -0.095703122499999987 1711.5000000000002 -0.035034179999999991 -0.075927734399999988 0.065917969400000012 0.16357422000000002 16.058404198177559
decision_type=2 2 2 2 2 2 2 2 2 2 2 2 2
left_child=1 7 3 4 5 -3 -2 12 9 -9 -11 -8 -1
right_child=6 2 -4 -5 -6 -7 11 8 -10 10 -12 -13 -14
leaf_value=0.040962322854990137 0 0.16209621270366709 0 0 0 0 -0.16399502218009943 0 0 -0.1902859488833869 0 0 0
leaf_weight=5.5873326871078453 1.5296275988221157 16.987883226014688 8.8332076217047852 0.7876199446618547 0.78597476985305448 0.8859716453589489 10.624309093225744 7.7290189284831277 10.314983800053595 10.879348911345007 4.707357362844049 0.6004875893704601 1.1189863658510146
leaf_count=778 146 739 149 8 17 25 2089 103 114 112 51 100 86
internal_value=0 0.017474 0.0687983 0.106602 0.127645 0.145555 -0.129629 0 -0.0240498 -0.066836 -0.123911 -0.155491 0.00334634
internal_weight=81.3721 68.6177 28.2807 19.4474 18.6598 17.8739 12.7544 40.337 33.6307 23.3157 15.5867 11.2248 6.70632
internal_count=4517 2182 938 789 781 764 2335 1244 380 266 163 2189 864
is_linear=0
shrinkage=0.299345


Tree=20
num_leaves=13
num_cat=0
split_feature=0 3 33 3 51 1 39 2 9 38 38 38
split_gain=2.01443 0.984728 1.58587 0.916036 0.668948 0.638065 0.627842 0.624233 0.439407 0.435198 6.75316e-05 0.173976
threshold=4364.0000000000009 333.08333333333343 0.037109377500000006 150.75000000000003 -0.030090333599999994 2253.0000000000005 -0.012054443349999997 683.25000000000011 -0.011352536799999998 0.078369140600000012 0.030395508900000003 -0.0084838867099999975
decision_type=2 2 2 2 2 2 2 2 2 2 2 2
left_child=1 2 6 -2 -5 -6 8 -7 -1 -9 11 -3
right_child=3 10 -4 4 5 7 -8 9 -10 -11 -12 -13
leaf_value=0 0 0 0 0 0 0 0 -0.14744759301115407 0.17296888707157931 0 0.00084092803974786007 -0.028835300479166319
leaf_weight=0.31092064641415795 8.0434140572324413 8.0575875453650969 2.825006525963544 0.93469738680869596 1.6072748508304382 0.57738455501385288 1.076660594437272 18.079702906077731 11.381930986419318 0.61130555626004834 7.259765218012034 17.451782518997788
leaf_count=9 195 65 205 88 45 4 97 2296 1279 32 60 142
internal_value=0 0.0327815 0.0915589 -0.0638858 -0.0951539 -0.110179 0.142016 -0.125969 0.161775 -0.138293 0 0
internal_weight=78.2174 48.3637 15.5945 29.8538 21.8104 20.8757 12.7695 19.2684 11.6929 18.691 32.7691 25.5094
internal_count=4517 1857 1590 2660 2465 2377 1385 2332 1288 2328 267 207
is_linear=0
shrinkage=0.299345


Tree=21
num_leaves=16
num_cat=0
split_feature=3 38 68 55 65 10 13 13 65 14 3 50 3 14 39
split_gain=0.756719 0.719809 0.576157 0.415881 0.380141 0.344391 0.349897 0.20462 0.952538 1.19443 0.71435 0.245479 0.363767 0.43027 0.162716
threshold=723.25000000000011 0.035888670950000007 -0.050537109699999992 0.055786132800000006 -0.11645507999999999 0.069091798750000016 0.18212890650000005 0.13769531100000001 -0.031005859699999996 -0.027282714999999996 138.08333333333334 -0.093505859999999982 560.00000000000011 -0.14746093899999999 -0.086914061249999994
decision_type=2 2 2 2 2 2 2 2 2 2 2 2 2 2 2
left_child=1 7 -3 5 -2 6 -4 11 -9 10 -10 -1 13 -13 -6
right_child=4 2 3 -5 14 -7 -8 8 9 -11 -12 12 -14 -15 -16
leaf_value=0 0 0 0.13669550365155114 0 0 0 0 0 0 0 -0.15638212822794528 0 0 0.074258102115667732 -0.10872530582559212
leaf_weight=1.2780084633268405 0.26162749156355758 1.6190682090818871 10.742904406273732 1.0561002737376828 1.2437018998898555 0.97431031824089664 0.59924856969155449 15.045134906889873 1.7260860875248898 1.4160674191080023 9.7509373258799297 0.76663617999293165 4.5012052841484538 16.417724596569322 7.7605592175386837
leaf_count=36 21 50 389 34 235 59 26 496 167 42 144 30 63 900 1825
internal_value=0 0.0118121 0.0673442 0.0924936 -0.074375 0.109344 0.123771 0 -0.0217241 -0.0835893 -0.127044 0.0136767 0.0339785 0.0565633 -0.094756
internal_weight=75.1593 65.8934 14.9916 13.3726 9.26589 12.3165 11.3422 50.9018 27.9382 12.8931 11.477 22.9636 21.6856 17.1844 9.00426
internal_count=4517 2436 558 508 2081 474 415 1878 849 353 311 1029 993 930 2060
is_linear=0
shrinkage=0.299345


Tree=22
num_leaves=15
num_cat=0
split_feature=0 4 2 32 6 14 39 19 1 18 10 18 4 14
split_gain=1.33297 1.35898 0.780836 0.48973 0.864364 0.71198 0.478446 0.516986 0.413944 0.390934 0.366784 0.225163 0.134731 0.0424949
threshold=5950.0000000000009 14.612777053455021 759.25000000000011 0.051635740950000009 0.070556640000000018 -0.085693359999999982 -0.094238280599999988 0.01065063475 3229.0000000000005 -0.14306640649999999 0.064208981900000017 0.029663088100000002 4.6109391124871006 0.019165041400000003
decision_type=2 2 2 2 2 2 2 2 2 2 2 2 2 2
left_child=1 2 8 4 5 -3 -2 9 11 -8 -7 -1 -11 -14
right_child=6 3 -4 -5 -6 10 7 -9 -10 12 -12 -13 13 -15
leaf_value=0.14583025169089014 0 0 0 0 0 -0.16899741751105346 0 0 0 0 0 0 -0.13778316560325396 0
leaf_weight=11.610773614607748 1.7786876298487211 2.7595387985929838 20.319438530132174 8.8097889050841314 4.2660435973666599 6.3356244082096991 1.6248146237339813 1.5726530321408052 1.9820718010887493 0.68739349767565627 0.38236754131503392 0.2281246632337578 11.031329696997997 0.066122067160905185
leaf_count=1302 169 55 322 148 87 104 233 178 13 33 19 6 1843 5
internal_value=0 0.0209699 0.0644661 0 -0.0540146 -0.106118 -0.072126 -0.0916733 0.119873 -0.111591 -0.151978 0.139145 -0.129139 -0.136293
internal_weight=73.4548 56.6938 34.1404 22.5534 13.7436 9.47753 16.761 14.9823 13.821 13.4097 6.71799 11.8389 11.7848 11.0975
internal_count=4517 2056 1643 413 265 178 2461 2292 1321 2114 123 1308 1881 1848
is_linear=0
shrinkage=0.299345


Tree=23
num_leaves=15
num_cat=0
split_feature=1 18 50 68 11 68 3 42 42 18 6 38 1 50
split_gain=0.425759 0.799519 0.651068 0.622753 0.639371 0.737607 0.319431 0.223194 0.26356 0.141789 0.0939322 0.352307 0.424778 0.437932
threshold=3562.0000000000005 -0.076416018099999983 -0.098144530599999988 0.027709960450000005 -0.087158201249999984 -0.047363280599999995 674.75000000000011 0.079833981900000017 -0.046020507849999996 -0.13330077999999998 0.059326170950000007 0.036254881250000003 1105.5000000000002 -0.010070800399999998
decision_type=2 2 2 2 2 2 2 2 2 2 2 2 2 2
left_child=1 2 -1 4 -4 -6 -2 8 -8 -10 11 12 -3 -14
right_child=6 10 3 -5 5 -7 7 -9 9 -11 -12 -13 13 -15
leaf_value=0 0 0 0 0 0 0.11391956474659429 0 0 0 -0.11161798448160812 0 0 -0.097204572286614721 0
leaf_weight=1.0901373513042951 6.9804839361459043 1.2351304410258332 1.2185807523783356 2.4724597260355941 1.797348856227482 23.537872667424374 0.2975371181964882 0.26959871128201562 1.519635320524684 7.5290278802858621 9.2892190020065737 1.9659299314953376 11.116001436719669 0.75414823554456134
leaf_count=32 336 227 44 84 92 971 28 9 342 1737 352 92 162 9
internal_value=0 0.0153438 0.0519482 0.068699 0.0845111 0.0980822 -0.0373933 -0.0701102 -0.0831804 -0.0969569 0 -0.0226763 -0.0526906 -0.0769895
internal_weight=71.0731 54.4768 30.1164 29.0263 26.5538 25.3352 16.5963 9.6158 9.3462 9.04866 24.3604 15.0712 13.1053 11.8701
internal_count=4517 2065 1223 1191 1107 1063 2452 2116 2107 2079 842 490 398 171
is_linear=0
shrinkage=0.299345


Tree=24
num_leaves=12
num_cat=0
split_feature=0 10 3 6 1 3 1 32 6 6 6
split_gain=0.76059 0.468966 0.924783 0.192557 0.150505 0.175998 0.138692 0.108297 0.000172118 0.213418 0.00277614
threshold=7130.5000000000009 0.036865232200000007 454.00000000000006 1.0000000180025095e-35 864.50000000000011 3.2500000000000004 4257.5000000000009 0.095458981900000017 0.058837890300000008 -0.024047851549999995 0.10864257950000002
decision_type=2 2 2 2 2 2 2 2 2 2 2
left_child=1 8 3 -3 -2 -6 7 -5 9 -1 -10
right_child=4 2 -4 6 5 -7 -8 -9 10 -11 -12
leaf_value=0 0 0 0 0.12343149704892432 0 -0.097274655636538684 0 0 0.0045313670862229868 -0.029867330357520212 0
leaf_weight=2.0246044099330929 0.87192683992907305 0.98150196252390998 12.108519560191779 10.08481567469425 0.30816162144765158 8.0316281421110016 0.1501149386167534 1.2802555833477534 10.817597998073323 20.157666244544089 2.7449896594043812
leaf_count=54 5 55 138 693 2 2328 4 48 369 730 91
internal_value=0 0.0121738 0.0444415 0.0985707 -0.0749391 -0.0867373 0.108661 0.113704 0 -0.000810471 0
internal_weight=69.5618 60.3501 24.6052 12.4967 9.21172 8.33979 11.5152 11.3651 35.7449 22.1823 13.5626
internal_count=4517 2182 938 800 2335 2330 745 741 1244 784 460
is_linear=0
shrinkage=0.299345


Tree=25
num_leaves=9
num_cat=0
split_feature=0 11 1 3 38 0 11 32
split_gain=0.57027 0.629515 0.411152 0.299047 0.258061 0.154877 0.151708 0.0271463
threshold=3292.0000000000005 -0.052490232199999994 3562.0000000000005 750.91666666666686 -0.018615723899999995 3355.0000000000005 0.064697265000000018 -0.0068511962899999992
decision_type=2 2 2 2 2 2 2 2
left_child=1 -1 -2 6 -4 -6 7 -3
right_child=2 3 4 -5 5 -7 -8 -9
leaf_value=0 0 0 0 0 0 -0.097436098541274455 0 0.077667917202138559
leaf_weight=8.2525098733603972 26.874870551750064 1.6009393360000199 0.94438153877854247 1.3701777420938004 0.17226594290695985 8.9632490484509599 0.22575649619102378 19.716777235851623
leaf_count=418 451 66 152 17 1 2254 4 1154
internal_value=0 0.0291218 -0.0248221 0.0588816 -0.0728679 -0.0894808 0.0696291 0.0741466
internal_weight=68.1209 31.1662 36.9548 22.9137 10.0799 9.13551 21.5435 21.3177
internal_count=4517 1659 2858 1241 2407 2255 1224 1220
is_linear=0
shrinkage=0.299345


Tree=26
num_leaves=13
num_cat=0
split_feature=0 23 50 3 53 55 39 22 3 32 2 1
split_gain=0.331078 0.585684 0.687007 0.539976 0.412172 0.653584 0.270064 0.226713 0.162061 0.0181074 0.0128604 0.00356669
threshold=5950.0000000000009 0.034545899400000003 -0.093505859999999982 723.25000000000011 -0.033813478449999997 0.042724609700000006 -0.094238280599999988 0.017028806700000003 5.2500000000000009 -0.046508789999999994 440.50000000000006 919.50000000000011
decision_type=2 2 2 2 2 2 2 2 2 2 2 2
left_child=1 11 -3 4 -4 -6 -2 8 -8 -10 -11 -1
right_child=6 2 3 -5 5 -7 7 -9 9 10 -12 -13
leaf_value=0 0 0 0 0 0.095465722004351022 0 0 0 0 0 -0.086701053121900393 -0.0054433114641782906
leaf_weight=1.1458394817309443 1.6048416905105103 1.4617271223105479 3.5269767651334396 2.7516825417987993 27.388861276907846 6.7045178955886504 0.31310286105144669 1.8602385751437385 0.092403187416489341 0.019139509298841229 10.404914907645432 9.4891007072292251
leaf_count=209 169 55 114 81 1139 276 3 309 20 1 1959 182
internal_value=0 0.00808094 0.0360304 0.0531139 0.065298 0.0757123 -0.0409575 -0.0600009 -0.0763384 -0.0849189 -0.0860609 0
internal_weight=66.7633 52.4687 41.8338 40.372 37.6204 34.0934 14.2946 12.6898 10.8296 10.5165 10.4241 10.6349
internal_count=4517 2056 1665 1610 1529 1415 2461 2292 1983 1980 1960 391
is_linear=0
shrinkage=0.299345


Tree=27
num_leaves=16
num_cat=0
split_feature=4 32 13 48 2 35 51 56 1 13 18 13 48 38 19
split_gain=0.154054 0.977306 1.48428 0.767574 0.671642 0.593046 0.486922 0.298245 0.229545 0.232159 0.152159 0.110297 0.408907 0.361706 0.342436
threshold=14.612777053455021 0.053710938750000006 0.092285158100000014 -0.0094604492099999975 720.25000000000011 -0.066162109999999982 0.10644531200000001 0.043579100600000011 4801.5000000000009 0.22119140650000005 0.029663088100000002 0.14111328000000004 -0.063476562249999993 0.03942871030000001 0.0015449523950000002
decision_type=2 2 2 2 2 2 2 2 2 2 2 2 2 2 2
left_child=4 2 -2 5 7 -4 -7 8 9 10 -1 -6 -13 14 -14
right_child=1 -3 3 -5 11 6 -8 -9 -10 -11 -12 12 13 -15 -16
leaf_value=0.11425875143819209 0 0 0 0 0 -0.17787947058390033 0 0 0 0 0 0 -0.10567352522750396 0 0
leaf_weight=9.573083372320971 2.6816748249111759 8.9357372173108143 1.0487663502572129 1.4467837789561553 14.248359631164933 11.342238449491557 0.24590988177806217 0.62127951369620937 0.29867425421252924 0.22076878277584988 0.20824538543820459 4.1693606774788341 8.5191274284152279 1.3266236240742717 0.48844462272245515
leaf_count=1231 312 561 29 109 759 1052 4 55 4 2 6 115 205 49 24
internal_value=0 -0.022612 -0.0749168 -0.123443 0 -0.1475 -0.166286 0.07018 0.0865638 0.0975279 0.107606 0 -0.0250099 -0.0632441 -0.0875212
internal_weight=65.3751 25.7011 16.7654 14.0837 39.674 12.6369 11.5881 10.9221 10.3008 10.0021 9.78133 28.7519 14.5036 10.3342 9.00757
internal_count=4517 2067 1506 1194 2450 1085 1056 1298 1243 1239 1237 1152 393 278 229
is_linear=0
shrinkage=0.299345


Tree=28
num_leaves=14
num_cat=0
split_feature=1 47 4 6 2 38 22 2 22 6 22 22 22
split_gain=0.0268423 0.954005 0.34696 0.298883 0.240818 0.224969 0.413095 0.374978 0.479378 0.287288 0.204118 0.0173117 0.0123432
threshold=2619.0000000000005 0.045410158100000007 39.525871271585565 0.00045108795150000002 3433.2500000000005 0.035888670950000007 0.0091857910150000017 398.00000000000006 -0.081787109999999982 -0.0045623795699999995 0.054077148750000005 0.016357420950000003 -0.108154299
decision_type=2 2 2 2 2 2 2 2 2 2 2 2 2
left_child=1 2 3 -1 10 6 7 -2 -9 -10 -5 12 -3
right_child=5 11 -4 4 -6 -7 -8 8 9 -11 -12 -13 -14
leaf_value=0 0 0 0 0.11158801825555734 0 0 0 0 0 -0.093600408993630188 0 0 -0.019159721787134053
leaf_weight=2.2373117965180525 0.99694495205768063 0.18115410325117398 1.7142246023286123 13.463365099392826 0.29446165636181909 9.4208035916089994 5.6633608507690942 3.8681878050556469 1.6687408821890226 17.114485324244004 0.38239391858223903 1.2569267106009645 5.9412511781556523
leaf_count=139 7 18 36 1156 8 805 338 333 84 1120 17 89 367
internal_value=0 0.00462439 0.0666218 0.081412 0.0965574 -0.00676654 -0.0268043 -0.0486359 -0.0621847 -0.0821644 0.104545 0 -0.0144592
internal_weight=64.2036 25.4711 18.0918 16.3775 14.1402 38.7325 29.3117 23.6484 22.6514 18.7832 13.8458 7.37933 6.12241
internal_count=4517 1830 1356 1320 1181 2687 1882 1544 1537 1204 1173 474 385
is_linear=0
shrinkage=0.299345


Tree=29
num_leaves=6
num_cat=0
split_feature=0 6 0 6 47
split_gain=0.0633557 0.238671 0.114562 0.166067 0.18875
threshold=7130.5000000000009 0.058837890300000008 5950.0000000000009 0.10644531100000001 0.064941408100000014
decision_type=2 2 2 2 2
left_child=1 -1 3 4 -3
right_child=-2 2 -4 -5 -6
leaf_value=0 -0.024854652150001804 0.064798456041162508 0 0 0
leaf_weight=34.038143866171595 7.3326203469187012 13.895383032155227 2.4007834754884234 4.5431449861498541 0.73705710505601096
leaf_count=1310 2335 594 54 171 53
internal_value=0 0.00246521 0.0308238 0.0395341 0.0542478
internal_weight=62.9471 55.6145 21.5764 19.1756 14.6324
internal_count=4517 2182 872 818 647
is_linear=0
shrinkage=0.299345


Tree=30
num_leaves=17
num_cat=0
split_feature=0 4 22 0 3 22 22 6 65 50 1 65 6 6 22 22
split_gain=0.0430144 0.237953 0.370145 0.48087 0.2165 0.233285 0.171096 0.169515 0.148509 0.141437 0.169183 0.139674 0.155162 0.101099 0.0349939 0.00334096
threshold=4495.0000000000009 14.612777053455021 -0.034423829049999993 3880.5000000000005 693.83333333333337 0.054077148750000005 0.017028806700000003 0.11621093900000001 -0.11645507999999999 0.030517580000000006 1775.5000000000002 -0.037475588099999992 -0.026672363249999997 0.06616211000000001 0.018798828050000004 -0.016479491099999997
decision_type=2 2 2 2 2 2 2 2 2 2 2 2 2 2 2 2
left_child=1 2 -1 4 5 -4 7 8 -2 10 -10 15 -13 14 -14 -3
right_child=6 11 3 -5 -6 -7 -8 -9 9 -11 -12 12 13 -15 -16 -17
leaf_value=0 0 0.0070381052884563944 0.11966509481836776 0 0 0 0 0 0 0 -0.070623210401588435 0 -0.075779585901368893 0 0 0
leaf_weight=9.8276956623885798 0.60047766868956998 4.7462518780957907 8.3316711904481 2.2818473130464545 0.67008078005164939 0.35838326718658287 3.7783673489466301 1.2132761304965232 2.1996334423311152 0.26673248689621587 13.84273354790639 0.25698740920051832 5.4267911827191693 2.2521976653952152 0.72532814205624152 5.8153003631159681
leaf_count=641 22 106 804 37 7 22 355 163 60 7 2035 2 87 53 20 96
internal_value=0 0.000270984 0.0306051 0.0648953 0.0956878 0.108226 -0.0128847 -0.0314288 -0.0434496 -0.0520392 -0.058997 0 -0.0354508 -0.0521838 -0.0690109 0
internal_weight=62.5938 40.6925 21.4697 11.642 9.36014 8.69005 21.9012 18.1229 16.9096 16.3091 16.0424 19.2229 8.6613 8.40432 6.15212 10.5616
internal_count=4517 1875 1511 870 833 826 2642 2287 2124 2102 2095 364 162 160 107 202
is_linear=0
shrinkage=0.299345


Tree=31
num_leaves=12
num_cat=0
split_feature=47 14 0 47 39 38 14 39 47 47 11
split_gain=0.0118861 0.362345 0.294829 0.396354 0.270344 0.439547 0.398731 0.213458 0.200183 0.11911 0.0294095
threshold=0.025695802950000003 -0.085205079399999981 4967.0000000000009 -0.010803221349999998 -0.025329589849999997 0.035888670950000007 -0.027282714999999996 -0.012054443349999997 0.024597166400000006 0.026306153750000002 0.044067381250000003
decision_type=2 2 2 2 2 2 2 2 2 2 2
left_child=2 -2 3 -1 5 6 9 8 10 -3 -5
right_child=1 4 -4 7 -6 -7 -8 -9 -10 -11 -12
leaf_value=0 0 0 0 0.080170633768071306 0 0 0 0 0 -0.10315691414665219 0
leaf_weight=4.6545858234167126 11.042127940803768 0.14560188277392327 7.694320886861532 14.516566364327446 3.2865098242182276 3.5349110517418003 1.3221532130846743 2.1550144535140143 0.89718443411402482 12.191537893901112 0.1312969966093086
leaf_count=157 1078 9 1201 700 229 260 110 52 29 679 13
internal_value=0 -0.00567936 0.000454083 0.0334253 -0.0392364 -0.0558851 -0.0805894 0.0571008 0.0693783 -0.0987163 0.0787981
internal_weight=61.5718 31.5228 30.049 22.3546 20.4807 17.1942 13.6593 17.7001 15.545 12.3371 14.6479
internal_count=4517 2365 2152 951 1287 1058 798 794 742 688 713
is_linear=0
shrinkage=0.299345


Tree=32
num_leaves=8
num_cat=0
split_feature=0 10 3 6 3 6 6
split_gain=0.00312083 0.20246 0.446624 0.0612733 0.0197224 3.07273e-07 0.209283
threshold=7130.5000000000009 0.036865232200000007 454.00000000000006 1.0000000180025095e-35 3.7500000000000004 0.058837890300000008 -0.024047851549999995
decision_type=2 2 2 2 2 2 2
left_child=1 5 3 -3 -2 6 -1
right_child=4 2 -4 -5 -6 -7 -8
leaf_value=0 0 0 0 0.07613504914876873 -0.016131469805621391 0 -0.030817029814586658
leaf_weight=1.9365541711449648 0.29870377527549763 0.91224807605613278 11.287974468199534 9.6837625947082397 6.5685227862559259 12.056102680740876 18.449284684029408
leaf_count=54 2 55 138 745 2333 460 730
internal_value=0 0 0.027975 0.0699307 -0.00585244 0 -3.56346e-05
internal_weight=61.1932 54.3259 21.884 10.596 6.86723 32.4419 20.3858
internal_count=4517 2182 938 800 2335 1244 784
is_linear=0
shrinkage=0.299345


Tree=33
num_leaves=7
num_cat=0
split_feature=11 0 11 0 11 0
split_gain=0.000416865 0.143181 0.165391 0.055048 0.0453061 0.0318643
threshold=-0.019287109699999996 2201.0000000000005 -0.064697265599999984 8065.5000000000009 0.048095701550000002 1628.0000000000002
decision_type=2 2 2 2 2 2
left_child=1 -1 -3 4 5 -2
right_child=3 2 -4 -5 -6 -7
leaf_value=0 0 0 -0.035734289662324704 0 0 0.023924297413945996
leaf_weight=7.4816017353441557 2.9077668726677173 8.4142988538369554 20.385387259768322 1.497176103061064 0.63903860235586663 19.401888852706179
leaf_count=778 475 561 1394 850 31 428
internal_value=0 -0.000997006 -0.0206768 0 0.0142633 0.0195172
internal_weight=60.7272 36.2813 28.7997 24.4459 22.9487 22.3097
internal_count=4517 2733 1955 1784 934 903
is_linear=0
shrinkage=0.299345


end of trees

feature_importances:
wk2_Audience=53
wk1_Audience=45
wk2_Holiday_AudienceMean=32
e1=24
wk1_Holiday_AudienceMean=22
wk2_AudiencePerShow=17
e9=17
e17=13
e33=13
e8=11
e45=11
wk1_AudiencePerShow=10
e13=10
e34=10
e60=10
e5=9
e7=9
e6=8
e27=8
e54=8
e14=7
e37=7
e42=7
e46=7
e4=6
e51=6
e11=5
e28=5
e47=5
e50=5
e56=5
e61=5
e2=4
e18=4
e41=4
e52=4
e53=4
e63=4
e3=3
e23=3
e26=3
e30=3
e40=3
e44=3
e49=3
e16=2
e19=2
e20=2
e25=2
e35=2
e43=2
e55=2
e57=2
e10=1
e12=1
e21=1
e22=1
e24=1
e38=1
e48=1
e58=1
e59=1
e62=1
e64=1

parameters:
[boosting: gbdt]
[objective: binary]
[metric: binary_logloss]
[tree_learner: serial]
[device_type: gpu]
[data_sample_strategy: bagging]
[data: ]
[valid: ]
[num_iterations: 1000]
[learning_rate: 0.299345]
[num_leaves: 149]
[num_threads: 6]
[seed: 0]
[deterministic: 0]
[force_col_wise: 1]
[force_row_wise: 0]
[histogram_pool_size: -1]
[max_depth: 6]
[min_data_in_leaf: 6]
[min_sum_hessian_in_leaf: 0.001]
[bagging_fraction: 0.738028]
[pos_bagging_fraction: 1]
[neg_bagging_fraction: 1]
[bagging_freq: 0]
[bagging_seed: 3]
[bagging_by_query: 0]
[feature_fraction: 0.659235]
[feature_fraction_bynode: 1]
[feature_fraction_seed: 2]
[extra_trees: 0]
[extra_seed: 6]
[early_stopping_round: 0]
[early_stopping_min_delta: 0]
[first_metric_only: 0]
[max_delta_step: 0]
[lambda_l1: 4.69933]
[lambda_l2: 1.29746]
[linear_lambda: 0]
[min_gain_to_split: 0]
[drop_rate: 0.1]
[max_drop: 50]
[skip_drop: 0.5]
[xgboost_dart_mode: 0]
[uniform_drop: 0]
[drop_seed: 4]
[top_rate: 0.2]
[other_rate: 0.1]
[min_data_per_group: 100]
[max_cat_threshold: 32]
[cat_l2: 10]
[cat_smooth: 10]
[max_cat_to_onehot: 4]
[top_k: 20]
[monotone_constraints: ]
[monotone_constraints_method: basic]
[monotone_penalty: 0]
[feature_contri: ]
[forcedsplits_filename: ]
[refit_decay_rate: 0.9]
[cegb_tradeoff: 1]
[cegb_penalty_split: 0]
[cegb_penalty_feature_lazy: ]
[cegb_penalty_feature_coupled: ]
[path_smooth: 0]
[interaction_constraints: ]
[verbosity: 1]
[saved_feature_importance_type: 0]
[use_quantized_grad: 0]
[num_grad_quant_bins: 4]
[quant_train_renew_leaf: 0]
[stochastic_rounding: 1]
[linear_tree: 0]
[max_bin: 255]
[max_bin_by_feature: ]
[min_data_in_bin: 3]
[bin_construct_sample_cnt: 200000]
[data_random_seed: 1]
[is_enable_sparse: 1]
[enable_bundle: 1]
[use_missing: 1]
[zero_as_missing: 0]
[feature_pre_filter: 1]
[pre_partition: 0]
[two_round: 0]
[header: 0]
[label_column: ]
[weight_column: ]
[group_column: ]
[ignore_column: ]
[categorical_feature: ]
[forcedbins_filename: ]
[precise_float_parser: 0]
[parser_config_file: ]
[objective_seed: 5]
[num_class: 1]
[is_unbalance: 0]
[scale_pos_weight: 1]
[sigmoid: 1]
[boost_from_average: 1]
[reg_sqrt: 0]
[alpha: 0.9]
[fair_c: 1]
[poisson_max_delta_step: 0.7]
[tweedie_variance_power: 1.5]
[lambdarank_truncation_level: 30]
[lambdarank_norm: 1]
[label_gain: ]
[lambdarank_position_bias_regularization: 0]
[eval_at: ]
[multi_error_top_k: 1]
[auc_mu_weights: ]
[num_machines: 1]
[local_listen_port: 12400]
[time_out: 120]
[machine_list_filename: ]
[machines: ]
[gpu_platform_id: -1]
[gpu_device_id: 0]
[gpu_use_dp: 0]
[num_gpu: 1]

end of parameters

pandas_categorical:[]
